%YAML:1.0
---
opencv_ml_svm:
   format: 3
   svmType: C_SVC
   kernel:
      type: RBF
      gamma: 1.
   C: 1.
   term_criteria: { epsilon:1.1920928955078125e-07, iterations:1000 }
   var_count: 4
   class_count: 2
   class_labels: !!opencv-matrix
      rows: 2
      cols: 1
      dt: i
      data: [ -1, 1 ]
   sv_total: 245
   support_vectors:
      - [ 1.44219999e+01, 4.16999996e-01, 1.59476304e+00, 6.24037981e-01 ]
      - [ 1., 5.33999979e-01, 1., 38. ]
      - [ 1.77199993e+01, 6.28000021e-01, 3.38600010e-01, 9.59366024e-01 ]
      - [ 1.93129997e+01, 5.09000003e-01, 1.65689695e+00, 3.62446010e-01 ]
      - [ 1.62789993e+01, 3.00999999e-01, 7.98583984e-01, 2.39575100e+00 ]
      - [ 3.16199994e+00, 4.70999986e-01, 2.52982211e+00, 5.37587214e+00 ]
      - [ 3.16199994e+00, 8.14000010e-01, 6.32456005e-01, 2.21359396e+00 ]
      - [ 5.81809998e+01, -2.40999997e-01, 1.03126895e+00,
          4.12508011e-01 ]
      - [ 1.48660002e+01, 3.30000013e-01, 9.41742003e-01, 6.72672987e-01 ]
      - [ 1., 8.98999989e-01, 2., 3. ]
      - [ 1.26490002e+01, 6.51000023e-01, 7.11512029e-01, 9.48683023e-01 ]
      - [ 2., 8.48999977e-01, 1.50000000e+00, 1. ]
      - [ 2.50200005e+01, 7.23999977e-01, 1.19903997e-01, 9.99201000e-01 ]
      - [ 2.28040009e+01, 6.57999992e-01, 5.26234984e-01, 9.64763999e-01 ]
      - [ 1.77199993e+01, 5.27999997e-01, 2.82166004e-01, 9.59366024e-01 ]
      - [ 1., 9.47000027e-01, 2., 1. ]
      - [ 3.46549988e+01, 2.91000009e-01, 1.06765294e+00, 7.21387029e-01 ]
      - [ 5.28019981e+01, 9.79999974e-02, 4.73470986e-01, 9.09065008e-01 ]
      - [ 0., 1., 0., 0. ]
      - [ 1.43179998e+01, 6.52999997e-01, 1.25717497e+00, 2.09528998e-01 ]
      - [ 1.41420002e+01, 6.00000024e-01, 1.48492396e+00, 7.07107008e-01 ]
      - [ 6., 7.62000024e-01, 1.33333302e+00, 0. ]
      - [ 3.16199994e+00, 8.24999988e-01, 1.89736700e+00, 9.48683023e-01 ]
      - [ 8.06200027e+00, 6.05000019e-01, 1.73648596e+00, 1.24034703e+00 ]
      - [ 2.63059998e+01, 4.60000008e-01, 1.90071002e-01, 9.88372028e-01 ]
      - [ 6.40299988e+00, 7.20000029e-01, 1.56173801e+00, 1.09321594e+00 ]
      - [ 0., 9.21000004e-01, 3., 1. ]
      - [ 8.28010025e+01, -3.88999999e-01, 6.52166009e-01,
          7.97092021e-01 ]
      - [ 2.94279995e+01, 5.36000013e-01, 3.05831999e-01, 9.85459983e-01 ]
      - [ 0., 9.87999976e-01, 1., 0. ]
      - [ 3.40149994e+01, 4.67999995e-01, 1.46994993e-01, 9.99567986e-01 ]
      - [ 1.52969999e+01, 5.93999982e-01, 1.96116102e+00, 1.96116000e-01 ]
      - [ 1.30380001e+01, 6.30999982e-01, 9.97053981e-01, 5.36875010e-01 ]
      - [ 19., 4.53999996e-01, 1.21052599e+00, 2.63157994e-01 ]
      - [ 1.70289993e+01, 5.70999980e-01, 1.23316205e+00, 5.87220006e-02 ]
      - [ 1.10450001e+01, 7.81000018e-01, 1.81070998e-01, 9.95893002e-01 ]
      - [ 1.60310001e+01, 5.75999975e-01, 1.18518698e+00, 6.23780005e-02 ]
      - [ 25., 1.57000005e-01, 8.00000012e-01, 1.03999996e+00 ]
      - [ 7.28000021e+00, 4.23999995e-01, 9.61524010e-01, 3.57137489e+00 ]
      - [ 22., 2.59999990e-01, 1.45454502e+00, 1.36363998e-01 ]
      - [ 1.30380001e+01, 6.06999993e-01, 9.97053981e-01, 9.97053981e-01 ]
      - [ 3.04139996e+01, 4.05999988e-01, 1.08503306e+00, 8.87754977e-01 ]
      - [ 11., 6.65000021e-01, 1.63636398e+00, 0. ]
      - [ 2.23600006e+00, 8.19999993e-01, 2.23606801e+00, 8.94427001e-01 ]
      - [ 5.83099985e+00, 6.10000014e-01, 6.85994029e-01, 2.91547608e+00 ]
      - [ 3.73359985e+01, 5.10999978e-01, 1.60701007e-01, 9.90992010e-01 ]
      - [ 2.23600006e+00, 8.15999985e-01, 4.47214007e-01, 3.57770896e+00 ]
      - [ 2.02240009e+01, 5.17000020e-01, 4.94468004e-01, 9.88936007e-01 ]
      - [ 1.33420000e+01, 4.23000008e-01, 1.49906301e+00, 2.99813002e-01 ]
      - [ 2.59619999e+01, 6.11000001e-01, 5.77777982e-01, 9.62963998e-01 ]
      - [ 3., 8.42000008e-01, 1.66666698e+00, 0. ]
      - [ 4.47200012e+00, 4.60999995e-01, 3.35410190e+00, 2.45967507e+00 ]
      - [ 8.24600029e+00, 7.92999983e-01, 1.81901705e+00, 2.42535993e-01 ]
      - [ 9.22000027e+00, 5.69000006e-01, 1.73544395e+00, 2.16930002e-01 ]
      - [ 3.66199989e+01, 2.07000002e-01, 8.46539974e-01, 5.73462009e-01 ]
      - [ 2.23610001e+01, 4.99000013e-01, 2.05718303e+00, 1.78884998e-01 ]
      - [ 1.70289993e+01, 3.08999985e-01, 1.52677298e+00, 1.76165998e-01 ]
      - [ 1.70289993e+01, 5.41999996e-01, 9.98274028e-01, 6.45941973e-01 ]
      - [ 19., 2.03999996e-01, 1.15789497e+00, 2.10526004e-01 ]
      - [ 1.00500002e+01, 6.61000013e-01, 1.79106700e+00, 9.95040014e-02 ]
      - [ 1.64920006e+01, 6.21999979e-01, 3.03169996e-01, 9.70143020e-01 ]
      - [ 14., 3.81000012e-01, 1.57142901e+00, 3.57143015e-01 ]
      - [ 1.30380001e+01, 4.67000008e-01, 1.53392994e+00, 4.60179001e-01 ]
      - [ 1.45600004e+01, 5.31000018e-01, 1.23624504e+00, 2.74720997e-01 ]
      - [ 1.80279999e+01, 4.53999996e-01, 1.33127999e+00, 5.54700010e-02 ]
      - [ 4.12300014e+00, 8.42999995e-01, 1.69774902e+00, 1.21267796e+00 ]
      - [ 1.77199993e+01, 6.44999981e-01, 1.52369797e+00, 2.82166004e-01 ]
      - [ 1., 8.56000006e-01, 2., 8. ]
      - [ 2., 8.73000026e-01, 2., 0. ]
      - [ 4.84150009e+01, -7.59999976e-02, 1.23928905e+00,
          6.19643986e-01 ]
      - [ 4.12300014e+00, 7.45000005e-01, 1.21267796e+00, 2.42535993e-01 ]
      - [ 1.34540005e+01, 5.26000023e-01, 8.17623973e-01, 6.68964982e-01 ]
      - [ 1.92350006e+01, 4.81999993e-01, 1.35167599e+00, 1.55963004e-01 ]
      - [ 2.96819992e+01, 9.79999974e-02, 1.41501606e+00, 7.41199017e-01 ]
      - [ 4.83839989e+01, 1.92000002e-01, 5.58036983e-01, 9.50730026e-01 ]
      - [ 1.80279999e+01, 6.35999978e-01, 1.10940002e-01, 9.98459995e-01 ]
      - [ 4.02490005e+01, 1.55000001e-01, 5.96284986e-01, 8.94427001e-01 ]
      - [ 1., 8.56000006e-01, 2., 4. ]
      - [ 17., 2.94000000e-01, 1.58823502e+00, 1.17647000e-01 ]
      - [ 2., 9.52000022e-01, 2., 0. ]
      - [ 1., 9.47000027e-01, 0., 2. ]
      - [ 3.92939987e+01, 1.07000001e-01, 1.04342306e+00, 9.16176021e-01 ]
      - [ 0., 9.61000025e-01, 1., 2. ]
      - [ 1.31529999e+01, 6.95999980e-01, 4.56171989e-01, 9.88372028e-01 ]
      - [ 1.64920006e+01, 3.65000010e-01, 1.33394599e+00, 2.42535993e-01 ]
      - [ 1.87880001e+01, 4.86000001e-01, 1.33061600e+00, 4.25796986e-01 ]
      - [ 1.52639999e+01, 6.48999989e-01, 1.04819500e+00, 8.51657987e-01 ]
      - [ 7.61600018e+00, 7.54999995e-01, 1.96959603e+00, 3.93918991e-01 ]
      - [ 4.19760017e+01, 1.96999997e-01, 3.09698999e-01, 9.76743996e-01 ]
      - [ 2.00249996e+01, 4.12999988e-01, 1.09862804e+00, 4.99380007e-02 ]
      - [ 2.23600006e+00, 8.14999998e-01, 8.94427001e-01, 1.34164095e+00 ]
      - [ 2., 8.76999974e-01, 1.50000000e+00, 2. ]
      - [ 3., 7.40000010e-01, 3.33332986e-01, 5.66666698e+00 ]
      - [ 2.20230007e+01, 5.00000000e-01, 1.81630999e-01, 9.98969018e-01 ]
      - [ 2., 8.94999981e-01, 2.50000000e+00, 1. ]
      - [ 1.96469994e+01, 3.75999987e-01, 4.58088011e-01, 9.67074990e-01 ]
      - [ 4., 9.20000017e-01, 0., 1. ]
      - [ 2.20230007e+01, 4.80000004e-02, 1.13519204e+00, 6.35707021e-01 ]
      - [ 1.34540005e+01, 6.23000026e-01, 1.26359999e+00, 7.43294001e-01 ]
      - [ 20., 5.55999994e-01, 1.10000002e+00, 8.00000012e-01 ]
      - [ 1.78040009e+01, 4.46000010e-01, 1.01098096e+00, 6.17821991e-01 ]
      - [ 1.39280005e+01, 5.22000015e-01, 1.00514102e+00, 3.58978987e-01 ]
      - [ 3.02649994e+01, 3.63999993e-01, 1.65205002e-01, 9.91227984e-01 ]
      - [ 1.94160004e+01, 6.89000010e-01, 5.15025973e-01, 9.78550017e-01 ]
      - [ 1., 9.44999993e-01, 2., 2. ]
      - [ 2.03959999e+01, 6.01999998e-01, 4.41260993e-01, 9.80580986e-01 ]
      - [ 1.80279999e+01, 4.72999990e-01, 1.94145095e+00, 3.32819998e-01 ]
      - [ 0., 9.58000004e-01, 1., 1. ]
      - [ 8.06200027e+00, 8.41000021e-01, 2.48069003e-01, 9.92277980e-01 ]
      - [ 3.60599995e+00, 6.63999975e-01, 3.05085111e+00, 2.21880102e+00 ]
      - [ 1.71170006e+01, 7.51999974e-01, 2.92102993e-01, 9.93151009e-01 ]
      - [ 14., 4.14999992e-01, 1.50000000e+00, 2.85714000e-01 ]
      - [ 2.06159992e+01, 4.77999985e-01, 1.06715703e+00, 2.42535993e-01 ]
      - [ 1.60310001e+01, 4.02999997e-01, 1.74659204e+00, 6.23780005e-02 ]
      - [ 1., 9.34000015e-01, 1., 3. ]
      - [ 2.90690002e+01, 2.38999993e-01, 1.37603998e-01, 9.97630000e-01 ]
      - [ 2.72950001e+01, 3.91000003e-01, 6.96106017e-01, 8.79292011e-01 ]
      - [ 1.36009998e+01, 5.13000011e-01, 1.10282195e+00, 5.88172019e-01 ]
      - [ 3.16199994e+00, 9.44000006e-01, 3.16228002e-01, 9.48683023e-01 ]
      - [ 6.53069992e+01, -2.56000012e-01, 1.08717299e+00,
          4.28743988e-01 ]
      - [ 3.13850002e+01, 2.45000005e-01, 6.37252986e-01, 8.60292017e-01 ]
      - [ 6.70800018e+00, 7.63999999e-01, 1.78885400e+00, 4.47214007e-01 ]
      - [ 3.71619987e+01, 2.41999999e-01, 9.41826999e-01, 9.14918005e-01 ]
      - [ 5.03289986e+01, 1.04999997e-01, 6.75556004e-01, 9.33857024e-01 ]
      - [ 1.33420000e+01, 6.30999982e-01, 6.74579024e-01, 9.74390984e-01 ]
      - [ 3., 8.52999985e-01, 1., 0. ]
      - [ 1.80279999e+01, 7.78999984e-01, 5.54700010e-02, 9.98459995e-01 ]
      - [ 5., 9.35999990e-01, 0., 1. ]
      - [ 30., 1.99000001e-01, 6.66669980e-02, 1. ]
      - [ 7.07100010e+00, 8.09000015e-01, 1.41421005e-01, 9.89948988e-01 ]
      - [ 1.58109999e+01, 6.43000007e-01, 3.16228002e-01, 9.48683023e-01 ]
      - [ 3., 8.33999991e-01, 3.33332986e-01, 1.33333302e+00 ]
      - [ 1.41400003e+00, 9.24000025e-01, 7.07107008e-01, 2.12132001e+00 ]
      - [ 15., 5.65999985e-01, 1., 8.00000012e-01 ]
      - [ 4.70110016e+01, -1.58000007e-01, 9.35958028e-01,
          9.57229972e-01 ]
      - [ 9.05500031e+00, 6.91999972e-01, 1.10431504e+00, 1.10431999e-01 ]
      - [ 1.44219999e+01, 6.21999979e-01, 1.38674998e+00, 5.54700017e-01 ]
      - [ 1.41400003e+00, 9.12999988e-01, 7.07107008e-01, 7.07107008e-01 ]
      - [ 6.57949982e+01, 3.07999998e-01, 1.09430599e+00, 6.83941007e-01 ]
      - [ 2.36009998e+01, 5.04000008e-01, 1.31351197e+00, 8.05055976e-01 ]
      - [ 2., 7.50000000e-01, 1.50000000e+00, 3. ]
      - [ 2., 9.31999981e-01, 1.50000000e+00, 0. ]
      - [ 13., 5.32999992e-01, 1.30769205e+00, 3.84615004e-01 ]
      - [ 1.41420002e+01, 4.09000009e-01, 1.48492396e+00, 2.12132007e-01 ]
      - [ 2.23600006e+00, 8.00000012e-01, 3.57770896e+00, 8.94427001e-01 ]
      - [ 1.72630005e+01, 7.69999981e-01, 2.89642006e-01, 9.84784007e-01 ]
      - [ 2.81599998e+01, 5.69999993e-01, 1.42043993e-01, 9.94309008e-01 ]
      - [ 5.67540016e+01, 1.00000001e-01, 3.87638986e-01, 9.69097018e-01 ]
      - [ 6.91230011e+01, -3.93000007e-01, 6.65480018e-01,
          9.69286025e-01 ]
      - [ 3.81180000e+01, 2.37000003e-01, 2.09873006e-01, 9.96897995e-01 ]
      - [ 2.80179996e+01, 3.24000001e-01, 7.13829994e-02, 9.99363005e-01 ]
      - [ 2.84249992e+01, 3.24999988e-01, 1.54791498e+00, 6.33238018e-01 ]
      - [ 1.41400003e+00, 7.37999976e-01, 4.94974709e+00, 5.65685415e+00 ]
      - [ 3.16199994e+00, 7.77999997e-01, 1.89736700e+00, 2.52982211e+00 ]
      - [ 1.36009998e+01, 1.70000002e-01, 1.39690804e+00, 2.13212204e+00 ]
      - [ 25., 5.64999998e-01, 3.99999991e-02, 1. ]
      - [ 7.07100010e+00, 7.11000025e-01, 1.13137102e+00, 1.41421005e-01 ]
      - [ 6.08300018e+00, 8.43999982e-01, 3.28797996e-01, 9.86393988e-01 ]
      - [ 1.41400003e+00, 8.88999999e-01, 7.07107008e-01, 4.24264097e+00 ]
      - [ 1.72630005e+01, 5.78999996e-01, 3.47570986e-01, 9.84784007e-01 ]
      - [ 2.08090000e+01, 3.14999998e-01, 1.05725300e+00, 5.76682985e-01 ]
      - [ 3.86010017e+01, 1.36999995e-01, 6.73565984e-01, 9.58536029e-01 ]
      - [ 4.30810013e+01, 3.42000008e-01, 5.33873975e-01, 9.28476989e-01 ]
      - [ 8.04110031e+01, -4.83000010e-01, 1.10680795e+00,
          1.86541006e-01 ]
      - [ 10., 6.94999993e-01, 1.10000002e+00, 0. ]
      - [ 2.23600006e+00, 8.65000010e-01, 8.94427001e-01, 4.47214007e-01 ]
      - [ 2.19540005e+01, 4.90999997e-01, 9.56524014e-01, 5.01035988e-01 ]
      - [ 1.80279999e+01, 5.28999984e-01, 1.38674998e+00, 5.54700010e-02 ]
      - [ 7., 7.21000016e-01, 1.57142901e+00, 1.42857000e-01 ]
      - [ 20., 6.48999989e-01, 5.00000007e-02, 1. ]
      - [ 6.55130005e+01, -3.95000011e-01, 3.96865994e-01,
          9.76899981e-01 ]
      - [ 3.93190002e+01, 2.32999995e-01, 2.28896007e-01, 9.91882026e-01 ]
      - [ 7.07100010e+00, 7.44000018e-01, 1.41421005e-01, 9.89948988e-01 ]
      - [ 5., 7.08999991e-01, 2., 3. ]
      - [ 0., 9.84000027e-01, 0., 1. ]
      - [ 1.92350006e+01, 4.95999992e-01, 1.55963004e-01, 9.87762988e-01 ]
      - [ 2.50200005e+01, 5.75999975e-01, 3.99679989e-02, 9.99201000e-01 ]
      - [ 5.65700006e+00, 7.41999984e-01, 1.23743701e+00, 1.59098995e+00 ]
      - [ 1.83579998e+01, 5.24999976e-01, 1.25288999e+00, 4.90260988e-01 ]
      - [ 1.06300001e+01, 5.59000015e-01, 1.59922504e+00, 1.03479302e+00 ]
      - [ 1.31529999e+01, 4.28999990e-01, 1.59660006e+00, 4.56171989e-01 ]
      - [ 1.26490002e+01, 5.78999996e-01, 5.53399026e-01, 9.48683023e-01 ]
      - [ 1.40360003e+01, 5.32000005e-01, 9.97458994e-01, 2.13741004e-01 ]
      - [ 5.09899998e+00, 7.40999997e-01, 9.80580986e-01, 2.35339403e+00 ]
      - [ 2.70189991e+01, 4.05999988e-01, 7.77244985e-01, 6.29198015e-01 ]
      - [ 1.52320004e+01, 6.17999971e-01, 1.11610496e+00, 3.93918991e-01 ]
      - [ 4.12300014e+00, 3.40000004e-01, 2.42535591e+00, 1.09141026e+01 ]
      - [ 2.31949997e+01, 3.07999998e-01, 3.01791012e-01, 9.91599977e-01 ]
      - [ 1.40360003e+01, 6.37000024e-01, 1.06870604e+00, 2.13741004e-01 ]
      - [ 39., 2.89999992e-02, 1.76923096e+00, 3.84615004e-01 ]
      - [ 3.70139999e+01, 6.11999989e-01, 5.40339984e-02, 9.99634981e-01 ]
      - [ 1.17049999e+01, 7.03999996e-01, 1.79415095e+00, 3.41742992e-01 ]
      - [ 2.35370007e+01, 6.79000020e-01, 2.54916012e-01, 9.77176011e-01 ]
      - [ 4.12300014e+00, 6.33000016e-01, 2.66789198e+00, 2.42535993e-01 ]
      - [ 4., 7.96000004e-01, 2.25000000e+00, 1.75000000e+00 ]
      - [ 26., 4.37000006e-01, 8.84615004e-01, 9.23076987e-01 ]
      - [ 3.54679985e+01, -4.30000015e-02, 4.22913015e-01,
          9.30408001e-01 ]
      - [ 1.70289993e+01, 2.87999988e-01, 1.58549500e+00, 2.34888002e-01 ]
      - [ 2.30219994e+01, 6.25000000e-01, 2.60623008e-01, 9.99055982e-01 ]
      - [ 3.60599995e+00, 7.85000026e-01, 8.32050025e-01, 3.05085111e+00 ]
      - [ 1.06300001e+01, 5.46999991e-01, 1.12886500e+00, 1.41108096e+00 ]
      - [ 1.92350006e+01, 5.97000003e-01, 1.55963004e-01, 9.87762988e-01 ]
      - [ 13., 6.69000030e-01, 1., 3.84615004e-01 ]
      - [ 1.81110001e+01, 6.20000005e-01, 1.10431999e-01, 9.93884027e-01 ]
      - [ 2.12129993e+01, 6.16999984e-01, 1.88562006e-01, 9.89948988e-01 ]
      - [ 1.01980000e+01, 7.94000030e-01, 3.92232001e-01, 9.80580986e-01 ]
      - [ 1.20419998e+01, 4.42000002e-01, 6.64363980e-01, 2.49136400e+00 ]
      - [ 2., 9.61000025e-01, 0., 1. ]
      - [ 1., 9.89000022e-01, 0., 1. ]
      - [ 2.66270008e+01, 1.99000001e-01, 1.61489904e+00, 5.63337028e-01 ]
      - [ 1.34160004e+01, 6.16999984e-01, 4.47214007e-01, 8.94427001e-01 ]
      - [ 5.38500023e+00, 7.77000010e-01, 2.04264903e+00, 9.28476989e-01 ]
      - [ 5., 6.83000028e-01, 2.59999990e+00, 6.00000024e-01 ]
      - [ 8.06200027e+00, 6.94000006e-01, 1.11631298e+00, 1.24035001e-01 ]
      - [ 9., 8.62999976e-01, 1.11111000e-01, 1. ]
      - [ 1.88680000e+01, 3.98000002e-01, 1.37799704e+00, 5.29999018e-01 ]
      - [ 2.22040005e+01, 3.77999991e-01, 1.44120800e+00, 5.85491002e-01 ]
      - [ 3.55110016e+01, 3.07999998e-01, 1.07010400e+00, 8.44819009e-01 ]
      - [ 1.34160004e+01, 4.74999994e-01, 1.19256997e+00, 4.47214007e-01 ]
      - [ 2.02240009e+01, 4.05999988e-01, 1.23617005e+00, 1.48340002e-01 ]
      - [ 0., 9.54999983e-01, 1., 0. ]
      - [ 2.20230007e+01, 8.10000002e-02, 1.13519204e+00, 5.44892013e-01 ]
      - [ 1.41400003e+00, 8.85999978e-01, 2.12132001e+00, 1.41421402e+00 ]
      - [ 2.02240009e+01, 4.14999992e-01, 1.48340499e+00, 1.97787002e-01 ]
      - [ 1., 9.72000003e-01, 2., 0. ]
      - [ 2.10240002e+01, 5.05999982e-01, 1.09399796e+00, 9.51299965e-02 ]
      - [ 1., 9.90000010e-01, 1., 0. ]
      - [ 3.19060001e+01, -1.49999997e-02, 1.41038799e+00,
          8.46233010e-01 ]
      - [ 1.67630005e+01, 5.69000006e-01, 1.01413500e+00, 2.98274994e-01 ]
      - [ 14., 3.61999989e-01, 1.57142901e+00, 1.42857000e-01 ]
      - [ 3.25579987e+01, 2.25999996e-01, 2.45718002e-01, 9.82872009e-01 ]
      - [ 1.55240002e+01, 6.00000024e-01, 1.41714501e+00, 2.57663012e-01 ]
      - [ 1.11800003e+01, 7.26999998e-01, 1.78884998e-01, 9.83870029e-01 ]
      - [ 7.61600018e+00, 6.99000001e-01, 1.18175805e+00, 1.57567704e+00 ]
      - [ 5.58660011e+01, -1.01000004e-01, 1.46780002e+00,
          6.98099971e-01 ]
      - [ 1., 9.30000007e-01, 3., 0. ]
      - [ 3.25579987e+01, 1.85000002e-01, 2.45718002e-01, 9.82872009e-01 ]
      - [ 1.43179998e+01, 3.75000000e-01, 1.95560503e+00, 2.79372007e-01 ]
      - [ 1.41400003e+00, 8.34999979e-01, 4.24264097e+00, 7.07107008e-01 ]
      - [ 5.09899998e+00, 7.45999992e-01, 9.80580986e-01, 1.96116000e-01 ]
      - [ 4.12300014e+00, 7.42999971e-01, 9.70143020e-01, 1.94028497e+00 ]
      - [ 1.52639999e+01, 6.34000003e-01, 7.20633984e-01, 8.51657987e-01 ]
      - [ 2.21359997e+01, 3.07000011e-01, 9.93858993e-01, 3.16228002e-01 ]
      - [ 1.33420000e+01, 5.79999983e-01, 1.87382901e+00, 2.24859998e-01 ]
      - [ 1.52320004e+01, 7.31999993e-01, 5.25225997e-01, 9.19144988e-01 ]
   decision_functions:
      -
         sv_count: 245
         rho: 8.1463091446790453e-02
         alpha: [ 1., 4.5096707140342340e-01, 1., 2.5728504574125255e-01,
             4.2717571224473222e-01, 1., 1., 1., 3.4397281993451717e-01,
             6.8708312041018560e-01, 6.1906391181385434e-01,
             9.3868467502969299e-01, 1., 5.3794175578735881e-01,
             3.4349452489337207e-01, 4.6031905177655397e-01, 1.,
             3.6740599653095324e-01, 3.7650506219180147e-01,
             7.9440861009439101e-01, 1., 1., 2.8224012432041985e-03, 1.,
             6.1623708095923069e-01, 6.0481874433859573e-01, 1.,
             3.4768156863694777e-02, 6.3640164952924350e-01, 1., 1., 1.,
             2.0021000615443338e-01, 1.4425925989666230e-02,
             4.4923633941702634e-01, 4.5722454763160769e-01,
             8.0774535130649228e-01, 6.9195713957357263e-01, 1.,
             8.6436152562807789e-01, 1.5079800098907509e-01, 1., 1., 1.,
             5.9214816045698981e-01, 8.4431024571797672e-02,
             7.6934922306377040e-01, 9.6813977441933019e-01, 1.,
             3.1514907498133751e-02, 6.1403422940917907e-01, 1.,
             7.5524553345373513e-01, 9.6353273685349028e-01,
             6.9615669300703920e-01, 1., 7.7078239017031525e-01, 1., 1.,
             1., 2.6411716875529168e-01, 1., 1., 8.6031981407167046e-01,
             1.7042727208243069e-01, 5.3450757045646458e-01,
             8.3601368777674523e-01, 5.3754674061627228e-01,
             7.1429480382645849e-01, 7.8807667245516100e-01,
             5.0801974419242990e-01, 4.3765685946888672e-01, 1.,
             9.0367957966801316e-01, 2.2009617504301293e-01, 1.,
             2.1601850673938119e-02, 1., 1., 7.5956192021804603e-01,
             5.3466350148751862e-01, 6.8987917390916476e-01,
             9.3903120006387919e-01, 1.3404810989366758e-02,
             9.6504736557573645e-01, 6.6008244084963696e-01,
             4.0815287579778414e-01, 1., 3.3365448733039443e-01,
             6.8632990118670656e-01, 5.6553862645651043e-01, 1.,
             2.7963415252253238e-01, 1., 1., 5.5364681501650992e-01,
             8.7601611982384142e-02, 1., 1., 6.6259540337689804e-01,
             1.2679674302316033e-02, 4.8586297879807794e-01, 1., 1., 1.,
             1., 8.4471945926092340e-01, 7.8634897699409934e-01, -1.,
             -5.3028500974639936e-01, -3.1849223689369122e-01,
             -2.3155511928842759e-01, -1.7979321578594110e-02,
             -1.6755552544125868e-01, -9.1846692511617567e-01, -1.,
             -9.1842448523564368e-01, -4.1153988269737030e-01,
             -5.7193701662174012e-01, -1., -8.6397151343630477e-03,
             -9.9177909636944916e-01, -2.7635904075954437e-01,
             -7.6284504718779611e-01, -2.6420964557577545e-02,
             -2.7072488234169367e-01, -3.5839437215254472e-01,
             -1.9710814757136025e-01, -3.0734891749999077e-01, -1.,
             -3.7046015022481205e-01, -6.7312454333529692e-01,
             -1.9770952133147524e-01, -1.2050650184067113e-01,
             -4.3606709153106415e-01, -2.9076061831520605e-01,
             -2.8393474424993692e-01, -1., -1., -3.4963701526502711e-01,
             -1., -2.3061949034718016e-01, -3.7883682844057570e-01,
             -1.1880114006377950e-01, -3.8810916790143513e-01,
             -3.1986632409933091e-01, -1., -7.0019118975417616e-01, -1.,
             -2.6008173798796397e-01, -1., -6.5759607877150295e-01,
             -5.1598699728406816e-01, -9.1813209710429355e-01,
             -3.6316332098893428e-01, -5.5743556838677566e-01, -1.,
             -7.6983650008533233e-01, -2.9006749851457580e-02, -1., -1.,
             -1.8989445736921060e-01, -5.6954917484450984e-01,
             -1.0483388205228270e-01, -2.7341071822720503e-01,
             -9.1104630478423798e-01, -2.2397545090122695e-01,
             -6.5106937516996921e-01, -2.5418023680125340e-01,
             -4.2434875657192472e-01, -1., -2.1867354646796172e-01,
             -1.1339447729332572e-01, -5.3716175370816410e-01,
             -8.7135448511352942e-01, -2.5358860382545850e-01, -1.,
             -2.7615379512530103e-01, -1.6788688064677035e-01,
             -2.1940847562156410e-01, -6.3965706911012910e-01,
             -4.6554576503097178e-01, -9.0235390325606557e-01,
             -2.7735295891304962e-01, -1.3724252488370009e-01,
             -3.9948429770205446e-01, -9.5426679065895775e-02, -1.,
             -3.5715482237587642e-01, -1., -6.7115966498143342e-01,
             -5.4249536678609778e-01, -1., -1., -1.,
             -6.5170213281941736e-01, -2.0299896642269502e-01,
             -1.8931081394027927e-01, -1., -3.1692285358018057e-01,
             -1.1968347982760397e-01, -9.1863500722230174e-01, -1.,
             -1.2164525437285560e-01, -1., -1., -3.0551804948387290e-01,
             -1., -1., -5.8545638885518425e-01, -1.,
             -5.5927171931850850e-01, -2.7806267275606519e-02,
             -2.5300504793574141e-01, -8.1047462188543945e-02, -1.,
             -1.5357428225291742e-01, -2.4239520729244929e-01,
             -2.4979731248698570e-01, -4.0438572588524124e-01,
             -4.9027413298199340e-01, -1., -4.5254182049944858e-01, -1.,
             -5.5342724966522849e-01, -1., -2.2930359876237530e-01, -1.,
             -1.1410341330300239e-01, -1., -1., -1.,
             -2.4873556579389128e-01, -1., -4.2876473734669734e-01,
             -4.6688074364374645e-02, -1., -4.5126193364603218e-01,
             -2.1335471387638852e-01, -1.7316984727400644e-01,
             -1.7791845052029240e-01, -6.0658378729081985e-01, -1.,
             -4.9743525079529026e-02, -8.6289288403749986e-01 ]
         index: [ 113, 119, 117, 116, 115, 112, 106, 105, 102, 139, 138,
             134, 133, 130, 128, 124, 123, 122, 120, 76, 86, 84, 81, 75,
             74, 73, 72, 71, 69, 98, 101, 100, 99, 97, 95, 93, 88, 215,
             210, 209, 204, 201, 216, 197, 196, 195, 192, 189, 188, 230,
             241, 237, 236, 234, 187, 228, 227, 223, 221, 218, 217, 166,
             163, 162, 161, 160, 159, 155, 154, 151, 150, 149, 148, 147,
             146, 178, 184, 180, 176, 175, 171, 170, 20, 49, 4, 54, 3, 2,
             41, 14, 16, 40, 13, 45, 17, 37, 47, 8, 7, 24, 28, 60, 61,
             27, 58, 0, 57, 30, 182, 18, 181, 179, 29, 183, 186, 185,
             152, 153, 158, 169, 168, 167, 22, 26, 165, 164, 23, 25, 177,
             19, 174, 173, 156, 172, 21, 157, 232, 231, 229, 226, 225,
             224, 233, 222, 220, 239, 244, 243, 242, 240, 219, 238, 235,
             1, 200, 199, 198, 10, 11, 12, 202, 194, 193, 15, 191, 5, 6,
             214, 213, 212, 190, 211, 208, 207, 206, 205, 203, 9, 50, 94,
             51, 96, 92, 91, 52, 53, 90, 89, 104, 103, 44, 46, 48, 62,
             78, 77, 59, 79, 63, 70, 68, 67, 66, 65, 64, 55, 87, 85, 83,
             82, 56, 80, 132, 140, 137, 136, 135, 35, 131, 129, 127, 126,
             125, 145, 144, 143, 142, 32, 141, 33, 34, 39, 114, 111, 42,
             43, 110, 109, 108, 107, 121, 31, 36, 118, 38 ]
